<?xml version="1.0"?>
<opencv_storage>
<cascade>
  <stageType>BOOST</stageType>
  <featureType>HAAR</featureType>
  <height>24</height>
  <width>36</width>
  <stageParams>
    <boostType>GAB</boostType>
    <minHitRate>9.9500000476837158e-01</minHitRate>
    <maxFalseAlarm>5.0000000000000000e-01</maxFalseAlarm>
    <weightTrimRate>9.4999998807907104e-01</weightTrimRate>
    <maxDepth>1</maxDepth>
    <maxWeakCount>100</maxWeakCount></stageParams>
  <featureParams>
    <maxCatCount>0</maxCatCount>
    <featSize>1</featSize>
    <mode>BASIC</mode></featureParams>
  <stageNum>13</stageNum>
  <stages>
    <!-- stage 0 -->
    <_>
      <maxWeakCount>3</maxWeakCount>
      <stageThreshold>-1.2433775663375854e+00</stageThreshold>
      <weakClassifiers>
        <_>
          <internalNodes>
            0 -1 39 4.4246502220630646e-02</internalNodes>
          <leafValues>
            -8.2552504539489746e-01 8.9830505847930908e-01</leafValues></_>
        <_>
          <internalNodes>
            0 -1 30 1.0993835330009460e-01</internalNodes>
          <leafValues>
            -8.5244071483612061e-01 5.0943905115127563e-01</leafValues></_>
        <_>
          <internalNodes>
            0 -1 61 -2.3240204900503159e-03</internalNodes>
          <leafValues>
            4.3458819389343262e-01 -8.8566994667053223e-01</leafValues></_></weakClassifiers></_>
    <!-- stage 1 -->
    <_>
      <maxWeakCount>4</maxWeakCount>
      <stageThreshold>-1.5263454914093018e+00</stageThreshold>
      <weakClassifiers>
        <_>
          <internalNodes>
            0 -1 50 1.9619952887296677e-02</internalNodes>
          <leafValues>
            -8.3171522617340088e-01 9.3333333730697632e-01</leafValues></_>
        <_>
          <internalNodes>
            0 -1 26 1.3691255450248718e-01</internalNodes>
          <leafValues>
            -6.4855921268463135e-01 8.4841239452362061e-01</leafValues></_>
        <_>
          <internalNodes>
            0 -1 52 4.6826452016830444e-02</internalNodes>
          <leafValues>
            -5.3211539983749390e-01 8.1107753515243530e-01</leafValues></_>
        <_>
          <internalNodes>
            0 -1 19 1.9495683955028653e-03</internalNodes>
          <leafValues>
            -8.5714864730834961e-01 5.4144483804702759e-01</leafValues></_></weakClassifiers></_>
    <!-- stage 2 -->
    <_>
      <maxWeakCount>4</maxWeakCount>
      <stageThreshold>-1.1434693336486816e+00</stageThreshold>
      <weakClassifiers>
        <_>
          <internalNodes>
            0 -1 45 -4.7573819756507874e-02</internalNodes>
          <leafValues>
            7.7358490228652954e-01 -7.9839998483657837e-01</leafValues></_>
        <_>
          <internalNodes>
            0 -1 4 5.3115002810955048e-03</internalNodes>
          <leafValues>
            -8.2300490140914917e-01 2.0281863212585449e-01</leafValues></_>
        <_>
          <internalNodes>
            0 -1 9 -6.7332250182516873e-05</internalNodes>
          <leafValues>
            3.0982884764671326e-01 -8.3251196146011353e-01</leafValues></_>
        <_>
          <internalNodes>
            0 -1 33 5.4240832105278969e-03</internalNodes>
          <leafValues>
            -8.5771673917770386e-01 2.9614776372909546e-01</leafValues></_></weakClassifiers></_>
    <!-- stage 3 -->
    <_>
      <maxWeakCount>4</maxWeakCount>
      <stageThreshold>-1.1639271974563599e+00</stageThreshold>
      <weakClassifiers>
        <_>
          <internalNodes>
            0 -1 46 -7.5637981295585632e-02</internalNodes>
          <leafValues>
            6.0714286565780640e-01 -7.9099678993225098e-01</leafValues></_>
        <_>
          <internalNodes>
            0 -1 36 1.0780790034914389e-04</internalNodes>
          <leafValues>
            -8.2472717761993408e-01 1.7536878585815430e-01</leafValues></_>
        <_>
          <internalNodes>
            0 -1 13 3.5654522944241762e-03</internalNodes>
          <leafValues>
            2.3532545566558838e-01 -8.9659029245376587e-01</leafValues></_>
        <_>
          <internalNodes>
            0 -1 62 -2.1475312678376213e-05</internalNodes>
          <leafValues>
            3.4829112887382507e-01 -6.9543004035949707e-01</leafValues></_></weakClassifiers></_>
    <!-- stage 4 -->
    <_>
      <maxWeakCount>5</maxWeakCount>
      <stageThreshold>-1.7659497261047363e+00</stageThreshold>
      <weakClassifiers>
        <_>
          <internalNodes>
            0 -1 3 7.5866781175136566e-02</internalNodes>
          <leafValues>
            -8.0730897188186646e-01 3.6842104792594910e-01</leafValues></_>
        <_>
          <internalNodes>
            0 -1 1 6.1881780624389648e-02</internalNodes>
          <leafValues>
            1.5511952340602875e-01 -8.1587868928909302e-01</leafValues></_>
        <_>
          <internalNodes>
            0 -1 63 -7.2150339838117361e-04</internalNodes>
          <leafValues>
            2.7323400974273682e-01 -7.5936305522918701e-01</leafValues></_>
        <_>
          <internalNodes>
            0 -1 38 1.2255177833139896e-02</internalNodes>
          <leafValues>
            -7.2777408361434937e-01 3.0741718411445618e-01</leafValues></_>
        <_>
          <internalNodes>
            0 -1 67 -2.7101876912638545e-04</internalNodes>
          <leafValues>
            -8.2485193014144897e-01 3.0918380618095398e-01</leafValues></_></weakClassifiers></_>
    <!-- stage 5 -->
    <_>
      <maxWeakCount>5</maxWeakCount>
      <stageThreshold>-1.7310124635696411e+00</stageThreshold>
      <weakClassifiers>
        <_>
          <internalNodes>
            0 -1 53 2.6583146303892136e-02</internalNodes>
          <leafValues>
            -8.1450253725051880e-01 2.9411765933036804e-01</leafValues></_>
        <_>
          <internalNodes>
            0 -1 27 -5.8763707056641579e-04</internalNodes>
          <leafValues>
            2.4750784039497375e-01 -7.9635250568389893e-01</leafValues></_>
        <_>
          <internalNodes>
            0 -1 35 2.1054774522781372e-02</internalNodes>
          <leafValues>
            -6.1964178085327148e-01 4.7759562730789185e-01</leafValues></_>
        <_>
          <internalNodes>
            0 -1 57 -1.0151473106816411e-03</internalNodes>
          <leafValues>
            3.7861883640289307e-01 -7.4776148796081543e-01</leafValues></_>
        <_>
          <internalNodes>
            0 -1 24 1.4350564451888204e-03</internalNodes>
          <leafValues>
            2.8482469916343689e-01 -9.2299485206604004e-01</leafValues></_></weakClassifiers></_>
    <!-- stage 6 -->
    <_>
      <maxWeakCount>5</maxWeakCount>
      <stageThreshold>-1.5746992826461792e+00</stageThreshold>
      <weakClassifiers>
        <_>
          <internalNodes>
            0 -1 48 7.9569131135940552e-02</internalNodes>
          <leafValues>
            -7.5465840101242065e-01 8.2352942228317261e-01</leafValues></_>
        <_>
          <internalNodes>
            0 -1 51 8.6375316604971886e-03</internalNodes>
          <leafValues>
            -7.3174917697906494e-01 2.6541110873222351e-01</leafValues></_>
        <_>
          <internalNodes>
            0 -1 14 1.0588465258479118e-02</internalNodes>
          <leafValues>
            -6.8921333551406860e-01 3.3240148425102234e-01</leafValues></_>
        <_>
          <internalNodes>
            0 -1 6 -4.4846400851383805e-04</internalNodes>
          <leafValues>
            3.3847156167030334e-01 -6.8676775693893433e-01</leafValues></_>
        <_>
          <internalNodes>
            0 -1 34 3.8693763315677643e-02</internalNodes>
          <leafValues>
            2.6607456803321838e-01 -9.7308588027954102e-01</leafValues></_></weakClassifiers></_>
    <!-- stage 7 -->
    <_>
      <maxWeakCount>7</maxWeakCount>
      <stageThreshold>-1.3293325901031494e+00</stageThreshold>
      <weakClassifiers>
        <_>
          <internalNodes>
            0 -1 49 3.8278885185718536e-02</internalNodes>
          <leafValues>
            -8.0201339721679688e-01 2.4390244483947754e-01</leafValues></_>
        <_>
          <internalNodes>
            0 -1 18 -3.8526521530002356e-04</internalNodes>
          <leafValues>
            1.2602902948856354e-01 -7.8638207912445068e-01</leafValues></_>
        <_>
          <internalNodes>
            0 -1 44 3.5025121178478003e-05</internalNodes>
          <leafValues>
            -7.5518542528152466e-01 2.3119825124740601e-01</leafValues></_>
        <_>
          <internalNodes>
            0 -1 21 8.5571443196386099e-04</internalNodes>
          <leafValues>
            -7.5471383333206177e-01 2.6945430040359497e-01</leafValues></_>
        <_>
          <internalNodes>
            0 -1 22 1.7350640147924423e-02</internalNodes>
          <leafValues>
            1.9224783778190613e-01 -8.7834841012954712e-01</leafValues></_>
        <_>
          <internalNodes>
            0 -1 47 1.0630171746015549e-03</internalNodes>
          <leafValues>
            -5.7064640522003174e-01 3.3251935243606567e-01</leafValues></_>
        <_>
          <internalNodes>
            0 -1 64 3.6544592148857191e-05</internalNodes>
          <leafValues>
            3.0580103397369385e-01 -6.9238424301147461e-01</leafValues></_></weakClassifiers></_>
    <!-- stage 8 -->
    <_>
      <maxWeakCount>6</maxWeakCount>
      <stageThreshold>-1.7568987607955933e+00</stageThreshold>
      <weakClassifiers>
        <_>
          <internalNodes>
            0 -1 31 -1.9884267449378967e-01</internalNodes>
          <leafValues>
            9.2592591047286987e-01 -7.4193549156188965e-01</leafValues></_>
        <_>
          <internalNodes>
            0 -1 55 -6.7561402916908264e-02</internalNodes>
          <leafValues>
            8.9949715137481689e-01 -4.0720120072364807e-01</leafValues></_>
        <_>
          <internalNodes>
            0 -1 28 2.3325559595832601e-05</internalNodes>
          <leafValues>
            -5.7264399528503418e-01 3.9151248335838318e-01</leafValues></_>
        <_>
          <internalNodes>
            0 -1 58 -1.4574915985576808e-04</internalNodes>
          <leafValues>
            3.3253192901611328e-01 -5.7337075471878052e-01</leafValues></_>
        <_>
          <internalNodes>
            0 -1 29 6.0245604254305363e-04</internalNodes>
          <leafValues>
            -6.2832987308502197e-01 2.9275444149971008e-01</leafValues></_>
        <_>
          <internalNodes>
            0 -1 40 -1.1442146264016628e-02</internalNodes>
          <leafValues>
            -9.5509421825408936e-01 2.0242613554000854e-01</leafValues></_></weakClassifiers></_>
    <!-- stage 9 -->
    <_>
      <maxWeakCount>6</maxWeakCount>
      <stageThreshold>-1.3607782125473022e+00</stageThreshold>
      <weakClassifiers>
        <_>
          <internalNodes>
            0 -1 37 5.8293633162975311e-02</internalNodes>
          <leafValues>
            -7.5116640329360962e-01 7.1428573131561279e-01</leafValues></_>
        <_>
          <internalNodes>
            0 -1 8 -4.8340196372009814e-05</internalNodes>
          <leafValues>
            1.8936413526535034e-01 -7.5116795301437378e-01</leafValues></_>
        <_>
          <internalNodes>
            0 -1 23 2.8339400887489319e-02</internalNodes>
          <leafValues>
            -5.8166420459747314e-01 3.3771049976348877e-01</leafValues></_>
        <_>
          <internalNodes>
            0 -1 65 2.5249646569136530e-05</internalNodes>
          <leafValues>
            -6.9150435924530029e-01 3.0511525273323059e-01</leafValues></_>
        <_>
          <internalNodes>
            0 -1 16 -7.7952470746822655e-05</internalNodes>
          <leafValues>
            -7.2664380073547363e-01 2.7426558732986450e-01</leafValues></_>
        <_>
          <internalNodes>
            0 -1 59 -2.4296750780194998e-05</internalNodes>
          <leafValues>
            2.8146174550056458e-01 -6.8233728408813477e-01</leafValues></_></weakClassifiers></_>
    <!-- stage 10 -->
    <_>
      <maxWeakCount>6</maxWeakCount>
      <stageThreshold>-1.3461772203445435e+00</stageThreshold>
      <weakClassifiers>
        <_>
          <internalNodes>
            0 -1 32 -9.8875239491462708e-02</internalNodes>
          <leafValues>
            8.0000001192092896e-01 -7.4382716417312622e-01</leafValues></_>
        <_>
          <internalNodes>
            0 -1 2 4.2562174797058105e-01</internalNodes>
          <leafValues>
            -4.8990577459335327e-01 6.6895741224288940e-01</leafValues></_>
        <_>
          <internalNodes>
            0 -1 12 8.5195590509101748e-04</internalNodes>
          <leafValues>
            -7.1279335021972656e-01 3.1320700049400330e-01</leafValues></_>
        <_>
          <internalNodes>
            0 -1 11 4.5615881681442261e-02</internalNodes>
          <leafValues>
            2.3190827667713165e-01 -8.1239563226699829e-01</leafValues></_>
        <_>
          <internalNodes>
            0 -1 10 1.7794335144571960e-04</internalNodes>
          <leafValues>
            2.8290641307830811e-01 -6.8641585111618042e-01</leafValues></_>
        <_>
          <internalNodes>
            0 -1 25 1.6367102507501841e-03</internalNodes>
          <leafValues>
            2.0063257217407227e-01 -9.4046598672866821e-01</leafValues></_></weakClassifiers></_>
    <!-- stage 11 -->
    <_>
      <maxWeakCount>6</maxWeakCount>
      <stageThreshold>-1.3140341043472290e+00</stageThreshold>
      <weakClassifiers>
        <_>
          <internalNodes>
            0 -1 0 5.0523921847343445e-02</internalNodes>
          <leafValues>
            -7.4613004922866821e-01 7.5000000000000000e-01</leafValues></_>
        <_>
          <internalNodes>
            0 -1 41 3.0596740543842316e-04</internalNodes>
          <leafValues>
            -7.8139477968215942e-01 1.8665400147438049e-01</leafValues></_>
        <_>
          <internalNodes>
            0 -1 42 -3.1625688279746100e-05</internalNodes>
          <leafValues>
            2.8956303000450134e-01 -7.1896374225616455e-01</leafValues></_>
        <_>
          <internalNodes>
            0 -1 20 2.3664071341045201e-04</internalNodes>
          <leafValues>
            -5.2688974142074585e-01 3.8669180870056152e-01</leafValues></_>
        <_>
          <internalNodes>
            0 -1 60 -2.3481923562940210e-05</internalNodes>
          <leafValues>
            3.6771470308303833e-01 -6.1294841766357422e-01</leafValues></_>
        <_>
          <internalNodes>
            0 -1 5 3.3871883060783148e-03</internalNodes>
          <leafValues>
            -7.9000091552734375e-01 2.9841458797454834e-01</leafValues></_></weakClassifiers></_>
    <!-- stage 12 -->
    <_>
      <maxWeakCount>7</maxWeakCount>
      <stageThreshold>-1.5510919094085693e+00</stageThreshold>
      <weakClassifiers>
        <_>
          <internalNodes>
            0 -1 15 2.8843820095062256e-02</internalNodes>
          <leafValues>
            -8.2547992467880249e-01 1.4285714924335480e-01</leafValues></_>
        <_>
          <internalNodes>
            0 -1 54 -1.2680592015385628e-02</internalNodes>
          <leafValues>
            7.2658658027648926e-01 -4.2743417620658875e-01</leafValues></_>
        <_>
          <internalNodes>
            0 -1 56 3.3759919460862875e-03</internalNodes>
          <leafValues>
            -4.0292799472808838e-01 5.1332980394363403e-01</leafValues></_>
        <_>
          <internalNodes>
            0 -1 66 -2.3933320335345343e-05</internalNodes>
          <leafValues>
            2.8797569870948792e-01 -6.8771612644195557e-01</leafValues></_>
        <_>
          <internalNodes>
            0 -1 7 -4.9639609642326832e-05</internalNodes>
          <leafValues>
            2.6058718562126160e-01 -6.9352102279663086e-01</leafValues></_>
        <_>
          <internalNodes>
            0 -1 17 -1.7003290355205536e-02</internalNodes>
          <leafValues>
            -7.1768808364868164e-01 2.6864939928054810e-01</leafValues></_>
        <_>
          <internalNodes>
            0 -1 43 3.1499606557190418e-03</internalNodes>
          <leafValues>
            2.7387529611587524e-01 -7.4194282293319702e-01</leafValues></_></weakClassifiers></_></stages>
  <features>
    <_>
      <rects>
        <_>
          0 0 3 12 -1.</_>
        <_>
          0 6 3 6 2.</_></rects>
      <tilted>0</tilted></_>
    <_>
      <rects>
        <_>
          0 0 32 24 -1.</_>
        <_>
          16 0 16 24 2.</_></rects>
      <tilted>0</tilted></_>
    <_>
      <rects>
        <_>
          0 0 36 12 -1.</_>
        <_>
          0 6 36 6 2.</_></rects>
      <tilted>0</tilted></_>
    <_>
      <rects>
        <_>
          0 3 16 9 -1.</_>
        <_>
          0 6 16 3 3.</_></rects>
      <tilted>0</tilted></_>
    <_>
      <rects>
        <_>
          0 8 10 6 -1.</_>
        <_>
          5 8 5 6 2.</_></rects>
      <tilted>0</tilted></_>
    <_>
      <rects>
        <_>
          0 10 8 7 -1.</_>
        <_>
          4 10 4 7 2.</_></rects>
      <tilted>0</tilted></_>
    <_>
      <rects>
        <_>
          0 20 15 4 -1.</_>
        <_>
          5 20 5 4 3.</_></rects>
      <tilted>0</tilted></_>
    <_>
      <rects>
        <_>
          0 22 10 2 -1.</_>
        <_>
          0 22 5 1 2.</_>
        <_>
          5 23 5 1 2.</_></rects>
      <tilted>0</tilted></_>
    <_>
      <rects>
        <_>
          0 23 6 1 -1.</_>
        <_>
          3 23 3 1 2.</_></rects>
      <tilted>0</tilted></_>
    <_>
      <rects>
        <_>
          0 23 12 1 -1.</_>
        <_>
          6 23 6 1 2.</_></rects>
      <tilted>0</tilted></_>
    <_>
      <rects>
        <_>
          1 0 15 3 -1.</_>
        <_>
          6 0 5 3 3.</_></rects>
      <tilted>0</tilted></_>
    <_>
      <rects>
        <_>
          1 1 28 9 -1.</_>
        <_>
          15 1 14 9 2.</_></rects>
      <tilted>0</tilted></_>
    <_>
      <rects>
        <_>
          1 8 5 8 -1.</_>
        <_>
          1 12 5 4 2.</_></rects>
      <tilted>0</tilted></_>
    <_>
      <rects>
        <_>
          1 8 9 4 -1.</_>
        <_>
          1 10 9 2 2.</_></rects>
      <tilted>0</tilted></_>
    <_>
      <rects>
        <_>
          1 8 22 5 -1.</_>
        <_>
          12 8 11 5 2.</_></rects>
      <tilted>0</tilted></_>
    <_>
      <rects>
        <_>
          1 14 24 6 -1.</_>
        <_>
          1 14 12 3 2.</_>
        <_>
          13 17 12 3 2.</_></rects>
      <tilted>0</tilted></_>
    <_>
      <rects>
        <_>
          1 18 9 3 -1.</_>
        <_>
          1 19 9 1 3.</_></rects>
      <tilted>0</tilted></_>
    <_>
      <rects>
        <_>
          2 7 32 2 -1.</_>
        <_>
          18 7 16 2 2.</_></rects>
      <tilted>0</tilted></_>
    <_>
      <rects>
        <_>
          2 20 8 4 -1.</_>
        <_>
          2 20 4 2 2.</_>
        <_>
          6 22 4 2 2.</_></rects>
      <tilted>0</tilted></_>
    <_>
      <rects>
        <_>
          3 2 2 22 -1.</_>
        <_>
          3 13 2 11 2.</_></rects>
      <tilted>0</tilted></_>
    <_>
      <rects>
        <_>
          3 5 1 6 -1.</_>
        <_>
          3 7 1 2 3.</_></rects>
      <tilted>0</tilted></_>
    <_>
      <rects>
        <_>
          3 8 4 7 -1.</_>
        <_>
          5 8 2 7 2.</_></rects>
      <tilted>0</tilted></_>
    <_>
      <rects>
        <_>
          3 10 10 8 -1.</_>
        <_>
          8 10 5 8 2.</_></rects>
      <tilted>0</tilted></_>
    <_>
      <rects>
        <_>
          3 10 33 4 -1.</_>
        <_>
          14 10 11 4 3.</_></rects>
      <tilted>0</tilted></_>
    <_>
      <rects>
        <_>
          3 23 24 1 -1.</_>
        <_>
          15 23 12 1 2.</_></rects>
      <tilted>0</tilted></_>
    <_>
      <rects>
        <_>
          3 23 26 1 -1.</_>
        <_>
          16 23 13 1 2.</_></rects>
      <tilted>0</tilted></_>
    <_>
      <rects>
        <_>
          4 0 9 24 -1.</_>
        <_>
          4 8 9 8 3.</_></rects>
      <tilted>0</tilted></_>
    <_>
      <rects>
        <_>
          4 15 3 8 -1.</_>
        <_>
          4 19 3 4 2.</_></rects>
      <tilted>0</tilted></_>
    <_>
      <rects>
        <_>
          4 18 2 1 -1.</_>
        <_>
          5 18 1 1 2.</_></rects>
      <tilted>0</tilted></_>
    <_>
      <rects>
        <_>
          4 20 10 2 -1.</_>
        <_>
          9 20 5 2 2.</_></rects>
      <tilted>0</tilted></_>
    <_>
      <rects>
        <_>
          5 0 15 20 -1.</_>
        <_>
          5 10 15 10 2.</_></rects>
      <tilted>0</tilted></_>
    <_>
      <rects>
        <_>
          5 8 27 6 -1.</_>
        <_>
          14 8 9 6 3.</_></rects>
      <tilted>0</tilted></_>
    <_>
      <rects>
        <_>
          5 12 28 6 -1.</_>
        <_>
          5 14 28 2 3.</_></rects>
      <tilted>0</tilted></_>
    <_>
      <rects>
        <_>
          6 0 9 10 -1.</_>
        <_>
          6 5 9 5 2.</_></rects>
      <tilted>0</tilted></_>
    <_>
      <rects>
        <_>
          7 0 12 24 -1.</_>
        <_>
          13 0 6 24 2.</_></rects>
      <tilted>0</tilted></_>
    <_>
      <rects>
        <_>
          7 10 27 5 -1.</_>
        <_>
          16 10 9 5 3.</_></rects>
      <tilted>0</tilted></_>
    <_>
      <rects>
        <_>
          8 4 4 13 -1.</_>
        <_>
          10 4 2 13 2.</_></rects>
      <tilted>0</tilted></_>
    <_>
      <rects>
        <_>
          8 11 12 10 -1.</_>
        <_>
          8 11 6 5 2.</_>
        <_>
          14 16 6 5 2.</_></rects>
      <tilted>0</tilted></_>
    <_>
      <rects>
        <_>
          9 1 2 20 -1.</_>
        <_>
          9 11 2 10 2.</_></rects>
      <tilted>0</tilted></_>
    <_>
      <rects>
        <_>
          9 13 13 6 -1.</_>
        <_>
          9 16 13 3 2.</_></rects>
      <tilted>0</tilted></_>
    <_>
      <rects>
        <_>
          10 23 26 1 -1.</_>
        <_>
          23 23 13 1 2.</_></rects>
      <tilted>0</tilted></_>
    <_>
      <rects>
        <_>
          11 9 6 15 -1.</_>
        <_>
          14 9 3 15 2.</_></rects>
      <tilted>0</tilted></_>
    <_>
      <rects>
        <_>
          12 19 1 2 -1.</_>
        <_>
          12 20 1 1 2.</_></rects>
      <tilted>0</tilted></_>
    <_>
      <rects>
        <_>
          14 1 10 6 -1.</_>
        <_>
          19 1 5 6 2.</_></rects>
      <tilted>0</tilted></_>
    <_>
      <rects>
        <_>
          14 5 1 6 -1.</_>
        <_>
          14 7 1 2 3.</_></rects>
      <tilted>0</tilted></_>
    <_>
      <rects>
        <_>
          14 13 18 6 -1.</_>
        <_>
          14 13 9 3 2.</_>
        <_>
          23 16 9 3 2.</_></rects>
      <tilted>0</tilted></_>
    <_>
      <rects>
        <_>
          15 10 18 10 -1.</_>
        <_>
          15 10 9 5 2.</_>
        <_>
          24 15 9 5 2.</_></rects>
      <tilted>0</tilted></_>
    <_>
      <rects>
        <_>
          15 13 12 3 -1.</_>
        <_>
          19 13 4 3 3.</_></rects>
      <tilted>0</tilted></_>
    <_>
      <rects>
        <_>
          16 3 14 12 -1.</_>
        <_>
          16 3 7 6 2.</_>
        <_>
          23 9 7 6 2.</_></rects>
      <tilted>0</tilted></_>
    <_>
      <rects>
        <_>
          16 12 4 10 -1.</_>
        <_>
          16 17 4 5 2.</_></rects>
      <tilted>0</tilted></_>
    <_>
      <rects>
        <_>
          16 14 4 9 -1.</_>
        <_>
          16 17 4 3 3.</_></rects>
      <tilted>0</tilted></_>
    <_>
      <rects>
        <_>
          16 14 18 6 -1.</_>
        <_>
          22 14 6 6 3.</_></rects>
      <tilted>0</tilted></_>
    <_>
      <rects>
        <_>
          17 4 11 15 -1.</_>
        <_>
          17 9 11 5 3.</_></rects>
      <tilted>0</tilted></_>
    <_>
      <rects>
        <_>
          17 12 3 10 -1.</_>
        <_>
          17 17 3 5 2.</_></rects>
      <tilted>0</tilted></_>
    <_>
      <rects>
        <_>
          17 14 2 9 -1.</_>
        <_>
          17 17 2 3 3.</_></rects>
      <tilted>0</tilted></_>
    <_>
      <rects>
        <_>
          19 14 13 6 -1.</_>
        <_>
          19 16 13 2 3.</_></rects>
      <tilted>0</tilted></_>
    <_>
      <rects>
        <_>
          21 0 6 10 -1.</_>
        <_>
          23 0 2 10 3.</_></rects>
      <tilted>0</tilted></_>
    <_>
      <rects>
        <_>
          24 20 7 4 -1.</_>
        <_>
          24 22 7 2 2.</_></rects>
      <tilted>0</tilted></_>
    <_>
      <rects>
        <_>
          28 5 4 2 -1.</_>
        <_>
          30 5 2 2 2.</_></rects>
      <tilted>0</tilted></_>
    <_>
      <rects>
        <_>
          28 15 2 1 -1.</_>
        <_>
          29 15 1 1 2.</_></rects>
      <tilted>0</tilted></_>
    <_>
      <rects>
        <_>
          28 18 2 1 -1.</_>
        <_>
          29 18 1 1 2.</_></rects>
      <tilted>0</tilted></_>
    <_>
      <rects>
        <_>
          29 9 6 6 -1.</_>
        <_>
          32 9 3 6 2.</_></rects>
      <tilted>0</tilted></_>
    <_>
      <rects>
        <_>
          30 9 2 1 -1.</_>
        <_>
          31 9 1 1 2.</_></rects>
      <tilted>0</tilted></_>
    <_>
      <rects>
        <_>
          30 12 4 4 -1.</_>
        <_>
          32 12 2 4 2.</_></rects>
      <tilted>0</tilted></_>
    <_>
      <rects>
        <_>
          31 21 5 3 -1.</_>
        <_>
          31 22 5 1 3.</_></rects>
      <tilted>0</tilted></_>
    <_>
      <rects>
        <_>
          31 23 4 1 -1.</_>
        <_>
          33 23 2 1 2.</_></rects>
      <tilted>0</tilted></_>
    <_>
      <rects>
        <_>
          32 13 2 1 -1.</_>
        <_>
          33 13 1 1 2.</_></rects>
      <tilted>0</tilted></_>
    <_>
      <rects>
        <_>
          32 20 4 3 -1.</_>
        <_>
          34 20 2 3 2.</_></rects>
      <tilted>0</tilted></_></features></cascade>
</opencv_storage>
