<?xml version="1.0"?>
<opencv_storage>
<stage5>
  <maxWeakCount>5</maxWeakCount>
  <stageThreshold>-1.7310124635696411e+00</stageThreshold>
  <weakClassifiers>
    <_>
      <internalNodes>
        0 -1 269917 2.6583146303892136e-02</internalNodes>
      <leafValues>
        -8.1450253725051880e-01 2.9411765933036804e-01</leafValues></_>
    <_>
      <internalNodes>
        0 -1 91476 -5.8763707056641579e-04</internalNodes>
      <leafValues>
        2.4750784039497375e-01 -7.9635250568389893e-01</leafValues></_>
    <_>
      <internalNodes>
        0 -1 138390 2.1054774522781372e-02</internalNodes>
      <leafValues>
        -6.1964178085327148e-01 4.7759562730789185e-01</leafValues></_>
    <_>
      <internalNodes>
        0 -1 329612 -1.0151473106816411e-03</internalNodes>
      <leafValues>
        3.7861883640289307e-01 -7.4776148796081543e-01</leafValues></_>
    <_>
      <internalNodes>
        0 -1 76255 1.4350564451888204e-03</internalNodes>
      <leafValues>
        2.8482469916343689e-01 -9.2299485206604004e-01</leafValues></_></weakClassifiers></stage5>
</opencv_storage>
