<?xml version="1.0"?>
<opencv_storage>
<stage9>
  <maxWeakCount>6</maxWeakCount>
  <stageThreshold>-1.3607782125473022e+00</stageThreshold>
  <weakClassifiers>
    <_>
      <internalNodes>
        0 -1 154564 5.8293633162975311e-02</internalNodes>
      <leafValues>
        -7.5116640329360962e-01 7.1428573131561279e-01</leafValues></_>
    <_>
      <internalNodes>
        0 -1 20062 -4.8340196372009814e-05</internalNodes>
      <leafValues>
        1.8936413526535034e-01 -7.5116795301437378e-01</leafValues></_>
    <_>
      <internalNodes>
        0 -1 70511 2.8339400887489319e-02</internalNodes>
      <leafValues>
        -5.8166420459747314e-01 3.3771049976348877e-01</leafValues></_>
    <_>
      <internalNodes>
        0 -1 359295 2.5249646569136530e-05</internalNodes>
      <leafValues>
        -6.9150435924530029e-01 3.0511525273323059e-01</leafValues></_>
    <_>
      <internalNodes>
        0 -1 38128 -7.7952470746822655e-05</internalNodes>
      <leafValues>
        -7.2664380073547363e-01 2.7426558732986450e-01</leafValues></_>
    <_>
      <internalNodes>
        0 -1 349390 -2.4296750780194998e-05</internalNodes>
      <leafValues>
        2.8146174550056458e-01 -6.8233728408813477e-01</leafValues></_></weakClassifiers></stage9>
</opencv_storage>
