<?xml version="1.0"?>
<opencv_storage>
<stage10>
  <maxWeakCount>6</maxWeakCount>
  <stageThreshold>-1.3461772203445435e+00</stageThreshold>
  <weakClassifiers>
    <_>
      <internalNodes>
        0 -1 107267 -9.8875239491462708e-02</internalNodes>
      <leafValues>
        8.0000001192092896e-01 -7.4382716417312622e-01</leafValues></_>
    <_>
      <internalNodes>
        0 -1 1646 4.2562174797058105e-01</internalNodes>
      <leafValues>
        -4.8990577459335327e-01 6.6895741224288940e-01</leafValues></_>
    <_>
      <internalNodes>
        0 -1 30888 8.5195590509101748e-04</internalNodes>
      <leafValues>
        -7.1279335021972656e-01 3.1320700049400330e-01</leafValues></_>
    <_>
      <internalNodes>
        0 -1 22624 4.5615881681442261e-02</internalNodes>
      <leafValues>
        2.3190827667713165e-01 -8.1239563226699829e-01</leafValues></_>
    <_>
      <internalNodes>
        0 -1 20420 1.7794335144571960e-04</internalNodes>
      <leafValues>
        2.8290641307830811e-01 -6.8641585111618042e-01</leafValues></_>
    <_>
      <internalNodes>
        0 -1 76256 1.6367102507501841e-03</internalNodes>
      <leafValues>
        2.0063257217407227e-01 -9.4046598672866821e-01</leafValues></_></weakClassifiers></stage10>
</opencv_storage>
