<?xml version="1.0"?>
<opencv_storage>
<stage12>
  <maxWeakCount>7</maxWeakCount>
  <stageThreshold>-1.5510919094085693e+00</stageThreshold>
  <weakClassifiers>
    <_>
      <internalNodes>
        0 -1 36205 2.8843820095062256e-02</internalNodes>
      <leafValues>
        -8.2547992467880249e-01 1.4285714924335480e-01</leafValues></_>
    <_>
      <internalNodes>
        0 -1 270648 -1.2680592015385628e-02</internalNodes>
      <leafValues>
        7.2658658027648926e-01 -4.2743417620658875e-01</leafValues></_>
    <_>
      <internalNodes>
        0 -1 300474 3.3759919460862875e-03</internalNodes>
      <leafValues>
        -4.0292799472808838e-01 5.1332980394363403e-01</leafValues></_>
    <_>
      <internalNodes>
        0 -1 360978 -2.3933320335345343e-05</internalNodes>
      <leafValues>
        2.8797569870948792e-01 -6.8771612644195557e-01</leafValues></_>
    <_>
      <internalNodes>
        0 -1 19971 -4.9639609642326832e-05</internalNodes>
      <leafValues>
        2.6058718562126160e-01 -6.9352102279663086e-01</leafValues></_>
    <_>
      <internalNodes>
        0 -1 49343 -1.7003290355205536e-02</internalNodes>
      <leafValues>
        -7.1768808364868164e-01 2.6864939928054810e-01</leafValues></_>
    <_>
      <internalNodes>
        0 -1 228829 3.1499606557190418e-03</internalNodes>
      <leafValues>
        2.7387529611587524e-01 -7.4194282293319702e-01</leafValues></_></weakClassifiers></stage12>
</opencv_storage>
